{"layer_0_weights": [[-0.11815378069877625, 0.3108667731285095, -0.29820939898490906, 0.06730242818593979, 0.07492445409297943, -0.3179890811443329, 0.15549154579639435, 0.0901799350976944, 0.21620334684848785, 0.09521184861660004, -0.0011617130367085338, -0.07738938927650452, 0.1292714774608612, -0.04016938433051109, -0.12492536008358002, -0.13663166761398315, -0.23471997678279877, 0.01567513309419155, 0.055400300770998, 0.052250899374485016, 0.33344215154647827, -0.11750123649835587, 0.09871090948581696, 0.01412670686841011, 0.023993147537112236, 0.3753955066204071, -0.15971100330352783, -0.34584638476371765, 0.001873358036391437, 0.2938513159751892, -0.010409550741314888, 0.2107175886631012], [0.06346801668405533, 0.36219239234924316, -0.04579976201057434, -0.04169671609997749, 0.27259624004364014, 0.20163945853710175, -0.4090878963470459, 0.03591420501470566, -0.31741222739219666, 0.27241453528404236, 0.39834269881248474, -0.028635745868086815, -0.23419468104839325, -0.3200940191745758, 0.0027297530323266983, -0.08055900782346725, 0.28286996483802795, 0.10905617475509644, -0.11640510708093643, -0.2891477346420288, -0.26314833760261536, 0.22143550217151642, 0.24875502288341522, -0.1497058868408203, 0.09925758838653564, -0.08325108140707016, 0.3423599600791931, -0.36635708808898926, -0.19108068943023682, 0.2795884609222412, -0.1197691559791565, 0.2524530291557312], [0.1363881677389145, 0.23782828450202942, -0.05958154425024986, 0.2827266454696655, -0.2292746752500534, -0.02361501008272171, -0.27295181155204773, -0.0676555186510086, -0.06537410616874695, -0.061929866671562195, 0.26586586236953735, -0.3560955822467804, 0.3618939518928528, 0.19406640529632568, -0.054389920085668564, 0.1360204666852951, 0.25134551525115967, 0.18829627335071564, -0.23493166267871857, 0.24629579484462738, -0.07820363342761993, 0.2991337478160858, -0.08324171602725983, 0.23696130514144897, -0.35579442977905273, 0.08520679920911789, -0.22285406291484833, 0.34410011768341064, -0.0300349872559309, 0.33852940797805786, -0.21353475749492645, -0.2984578013420105], [0.06061512604355812, 0.11676705628633499, 0.3538897633552551, 0.4746558666229248, 0.09157261997461319, 0.18216244876384735, -0.14499543607234955, -0.015100504271686077, -0.20271733403205872, 0.27393224835395813, 0.3087588846683502, 0.11341036856174469, -0.41671860218048096, 0.2731098234653473, 0.3571322560310364, 0.16766127943992615, -0.23868387937545776, 0.2876291871070862, 0.16661903262138367, -0.06480126827955246, -0.19607287645339966, -0.429598331451416, 0.2866964340209961, 0.42510494589805603, 0.16375534236431122, 0.41057059168815613, -0.045266564935445786, -0.40434160828590393, 0.09392356127500534, -0.07675282657146454, 0.36155781149864197, 0.018358437344431877], [0.5399508476257324, -0.13811522722244263, -0.35370075702667236, 0.3860946297645569, -0.3356621563434601, -0.10166238248348236, 0.3395497500896454, 0.5355648994445801, -0.060670364648103714, -0.2520013451576233, -0.3600420653820038, -0.3673384487628937, -0.0856679156422615, -0.5478168725967407, 0.4983800947666168, 0.3649221360683441, 0.07819461822509766, 0.5892466902732849, -0.10281731188297272, 0.42594480514526367, -0.08106037229299545, 0.2741045355796814, 0.5743021965026855, -0.3698478639125824, -0.279422402381897, -0.3420662581920624, -0.45315179228782654, 0.20186781883239746, 0.6826131343841553, 0.38992735743522644, 0.559887707233429, 0.09263274818658829], [-0.04258277639746666, 0.04523317888379097, -0.35160189867019653, 0.26138007640838623, 0.1904117912054062, -0.15038466453552246, 0.015956690534949303, 0.1535569280385971, 0.3031010925769806, -0.0231939647346735, 0.06273192167282104, -0.3302501142024994, 0.14717957377433777, -0.013915668241679668, -0.23464028537273407, 0.3149060904979706, -0.18844476342201233, -0.020333433523774147, 0.28801998496055603, 0.13378283381462097, 0.024324094876646996, -0.11135320365428925, -0.015096386894583702, 0.0449133925139904, 0.3363730311393738, 0.12485146522521973, 0.11851919442415237, -0.21081525087356567, -0.1820097714662552, 0.23545019328594208, 0.03932251036167145, -0.09235353022813797], [-0.17233651876449585, -0.010077296756207943, 0.080893874168396, 0.030913759022951126, 0.04122532531619072, -0.06529831886291504, 0.1293393075466156, 0.3269777297973633, -0.09016482532024384, -0.3619649410247803, 0.25677400827407837, -0.019489917904138565, -0.23610679805278778, -0.09628951549530029, 0.12401392310857773, 0.017189888283610344, 0.06270389258861542, -0.17685700953006744, -0.24998235702514648, 0.033497363328933716, 0.4086182117462158, -0.15224623680114746, -0.03519311919808388, -0.07930760830640793, -0.13623256981372833, -0.11249982565641403, -0.16923679411411285, -0.020204484462738037, -0.17314353585243225, 0.2780633270740509, 0.012916387058794498, 0.17813581228256226], [-0.2182466834783554, -0.22182978689670563, -0.1536768227815628, 0.17338602244853973, -0.07972603291273117, -0.22559905052185059, 0.05067146569490433, -0.3566814363002777, 0.18768854439258575, 0.09634287655353546, 0.07337962836027145, 0.25535836815834045, -0.16820740699768066, 0.33076605200767517, 0.10070616751909256, -0.19261717796325684, -0.1300388127565384, -0.18343862891197205, 0.3248670995235443, 0.12219280004501343, -0.06877845525741577, 0.17895695567131042, 0.058764778077602386, -0.12729768455028534, 0.3530978858470917, -0.12838754057884216, -0.3059302270412445, 0.26772162318229675, 0.2518700361251831, -0.17253807187080383, 0.17232924699783325, 0.3013427257537842], [0.28562894463539124, -0.3611183166503906, -0.3233944773674011, -0.3667600750923157, 0.06535916030406952, 0.04379021376371384, -0.04633847996592522, -0.30075758695602417, 0.07435020804405212, 0.19760295748710632, 0.17036953568458557, 0.1655067652463913, 0.07271462678909302, 0.07448548823595047, -0.012990915216505527, -0.22781427204608917, -0.18124841153621674, -0.12570875883102417, -0.006978343706578016, 0.0821155533194542, -0.26796525716781616, 0.12758685648441315, -0.00296831876039505, -0.2903550863265991, 0.17200428247451782, 0.3128662407398224, -0.05853341147303581, -0.38637661933898926, 0.11477717012166977, 0.30186927318573, 0.23401226103305817, 0.1992558091878891], [-0.14508666098117828, -0.0926525816321373, 0.21253745257854462, 0.3803739845752716, 0.23945438861846924, -0.10588398575782776, 0.25702276825904846, 0.27999797463417053, -0.16821640729904175, 0.4172596335411072, -0.17886362969875336, 0.17528694868087769, -0.19660113751888275, -0.06098586320877075, 0.008224585093557835, 0.1708463579416275, 0.04264426603913307, 0.026484673842787743, -0.41031280159950256, -0.09266674518585205, -0.26497960090637207, 0.06439129263162613, 0.0940825343132019, 0.20440806448459625, -0.23955754935741425, -0.10189563781023026, 0.3740110695362091, 0.05599605664610863, 0.1747826784849167, 0.03493377938866615, 0.16465574502944946, 0.017225144430994987], [0.26252564787864685, -0.2905884385108948, -0.1487741768360138, -0.23651374876499176, -0.015763118863105774, 0.12345165759325027, -0.12666408717632294, -0.21536676585674286, -0.24266494810581207, 0.30335721373558044, 0.019719507545232773, -0.03406922519207001, 0.09408929944038391, 0.41983672976493835, 0.16193023324012756, -0.3340771198272705, -0.1679208129644394, 0.05185515061020851, -0.3976443111896515, 0.12039317190647125, -0.4195842444896698, -0.1336468905210495, -0.13910003006458282, 0.19716183841228485, 0.3992226719856262, -0.0736268013715744, -0.28408244252204895, -0.16191931068897247, 0.35696926712989807, -0.06945397704839706, 0.20495669543743134, 0.11563985794782639]], "layer_0_biases": [0.2616818845272064, -0.045044396072626114, 0.16635707020759583, 0.12878206372261047, 0.12924841046333313, -0.026856916025280952, 0.08140699565410614, 0.13058319687843323, -0.06059359014034271, 0.07605694234371185, 0.18273557722568512, 0.09402365982532501, 0.05982128530740738, 0.1129632294178009, 0.021681249141693115, -0.027837267145514488, -0.03909030929207802, 0.2537214756011963, -0.048244621604681015, 0.20701035857200623, -0.029004590585827827, -0.01904197596013546, 0.17826738953590393, 0.110442616045475, 0.032764777541160583, 0.09780652821063995, 0.09410480409860611, 0.15278910100460052, 0.2127169817686081, 0.17349018156528473, 0.11177980154752731, 0.05206577107310295], "layer_1_weights": [[-0.41000470519065857, -0.10815420746803284, 0.430414617061615, -0.07204627990722656, 0.2288580685853958, -0.1460973620414734, 0.14254923164844513, 0.2798474133014679, 0.11998861283063889, -0.005174254532903433, 0.06670885533094406, 0.08895740658044815, -0.18193386495113373, 0.044448815286159515, 0.2069394737482071, 0.21892911195755005], [-0.09441574662923813, 0.39873388409614563, -0.10525143146514893, -0.06417394429445267, -0.12280473113059998, 0.040749650448560715, -0.06190129369497299, -0.2766014039516449, -0.26432672142982483, 0.10323861241340637, -0.027558621019124985, 0.04319031909108162, -0.14570584893226624, -0.3116816580295563, -0.007092306390404701, 0.4636118710041046], [0.02116008847951889, 0.4112106263637543, -0.12979967892169952, 0.22946327924728394, 0.18753592669963837, -0.07558181881904602, 0.07418734580278397, -0.2693842947483063, -0.03993444889783859, -0.1893971860408783, -0.25731441378593445, 0.25389012694358826, 0.3157324492931366, 0.2148350477218628, -0.0037741586565971375, 0.21558625996112823], [0.09511625021696091, 0.22581177949905396, 0.018145496025681496, 0.11054922640323639, 0.25618526339530945, -0.2597372233867645, 0.1644190400838852, 0.04888786002993584, 0.22168341279029846, -0.024243349209427834, -0.44063901901245117, -0.05256006494164467, 0.043567050248384476, 0.3943396806716919, 0.16858720779418945, 0.10442148894071579], [0.48550790548324585, -0.0701611340045929, 0.0031337107066065073, 0.4571513235569, -0.30738943815231323, 0.45589765906333923, -0.28127321600914, 0.07817423343658447, -0.4403989911079407, -0.004151997622102499, 0.3410104513168335, -0.019145304337143898, 0.3053451180458069, 0.06650245934724808, -0.35346657037734985, 0.17688673734664917], [-0.09107474982738495, 0.08955341577529907, -0.26540908217430115, 0.09766244143247604, 0.13569673895835876, 0.42116600275039673, -0.08983415365219116, 0.268494188785553, -0.19344507157802582, 0.160919651389122, 0.07701060175895691, -0.19638003408908844, 0.20100091397762299, 0.11028023064136505, 0.2127227783203125, -0.2528837025165558], [-0.3687596023082733, 0.04849022999405861, 0.4370761215686798, 0.14174151420593262, -0.027312826365232468, 0.008514254353940487, -0.09664341062307358, 0.3259197473526001, -0.1305745542049408, -0.2650458514690399, -0.10150917619466782, -0.07551994174718857, -0.18352405726909637, 0.2701462209224701, 0.4050596058368683, 0.06463801115751266], [0.2649156451225281, -0.17687781155109406, 0.17264620959758759, -0.3059402406215668, 0.10656222701072693, -0.007066722027957439, 0.1784442663192749, 0.17368926107883453, 0.34363994002342224, 0.2622298002243042, -0.2505761981010437, 0.23924975097179413, 0.21106737852096558, 0.3010866045951843, 0.4370753765106201, -0.12404748797416687], [0.18728645145893097, 0.22100301086902618, -0.2351032793521881, 0.15582968294620514, 0.4204332232475281, -0.2843490540981293, -0.1241760402917862, 0.04999389126896858, 0.24537526071071625, -0.09782140702009201, 0.23304001986980438, -0.27984869480133057, -0.23078788816928864, 0.26734796166419983, -0.10550378262996674, -0.32021236419677734], [0.050289783626794815, 0.05629069730639458, 0.04973452538251877, 0.40639185905456543, -0.30987972021102905, -0.14019878208637238, 0.16187410056591034, -0.2810252904891968, -0.19490370154380798, -0.1621779501438141, -0.26145994663238525, 0.3905768394470215, 0.21516281366348267, 0.20781223475933075, 0.10710195451974869, -0.06694519519805908], [0.41558048129081726, 0.43057015538215637, 0.10811706632375717, 0.403081476688385, 0.27480489015579224, 0.40714696049690247, 0.10365292429924011, 0.1407693326473236, 0.20476257801055908, -0.23198652267456055, -0.0017170041101053357, 0.3808963894844055, 0.24239718914031982, 0.0648304745554924, 0.14988115429878235, -0.04038708284497261], [0.31134551763534546, 0.25062358379364014, -0.343730628490448, 0.10207655280828476, -0.2814079523086548, 0.5813661217689514, -0.4041377902030945, -0.1724010854959488, -0.13390259444713593, -0.17335420846939087, -0.07445622235536575, 0.01886133663356304, 0.34772616624832153, -0.13560205698013306, -0.3173975646495819, 0.34606602787971497], [-0.39612463116645813, -0.13739542663097382, 0.47710734605789185, -0.4111219048500061, 0.15081831812858582, -0.42563357949256897, 0.1751992255449295, 0.10411722213029861, -0.22633829712867737, -0.18465915322303772, -0.22096741199493408, -0.01565241999924183, -0.32506686449050903, 0.47526979446411133, 0.04944103956222534, -0.40391796827316284], [0.17148013412952423, 0.27890437841415405, -0.2528636157512665, 0.22333423793315887, 0.03680824488401413, 0.3746786415576935, -0.13124966621398926, -0.35834285616874695, -0.13957098126411438, -0.16718775033950806, 0.3387182652950287, -0.0894484594464302, 0.42822280526161194, -0.18613557517528534, -0.44831132888793945, 0.3454902768135071], [-0.08854290843009949, -0.45451876521110535, 0.3291117548942566, -0.27425965666770935, 0.15930095314979553, -0.5320249199867249, 0.19065482914447784, 0.021609265357255936, 0.01796741411089897, -0.29792651534080505, -0.31580692529678345, -0.06657194346189499, -0.45941686630249023, -0.14336051046848297, 0.017596621066331863, -0.2279505580663681], [0.2544127404689789, -0.3852073848247528, 0.05559258908033371, -0.2831961512565613, 0.08053398132324219, 0.20420551300048828, 0.18129637837409973, -0.08359911292791367, 0.23821642994880676, -0.010350694879889488, 0.2315901815891266, -0.207825168967247, -0.10562082380056381, -0.08289748430252075, 0.026008406654000282, 0.2626786530017853], [-0.3451879322528839, -0.18580976128578186, 0.3313453495502472, 0.14938072860240936, 0.1654040366411209, 0.24972793459892273, -0.2253047078847885, -0.001965973759070039, 0.030011113733053207, 0.313776433467865, 0.14120715856552124, -0.34096017479896545, -0.08100894838571548, -0.12502186000347137, -0.1634194701910019, 0.048394519835710526], [-0.05804578214883804, 0.015087195672094822, 0.5114736557006836, -0.47709834575653076, 0.08116734027862549, -0.13208520412445068, 0.1924615055322647, 0.14530225098133087, 0.04158001393079758, -0.14005200564861298, 0.09971366077661514, -0.2244669497013092, -0.16772764921188354, 0.2216797173023224, 0.5201050639152527, -0.09260739386081696], [0.258781760931015, -0.12029897421598434, -0.2027614414691925, 0.002116170944646001, -0.19160012900829315, -0.1626797318458557, 0.3371819257736206, 0.162215456366539, -0.19317255914211273, -0.08978753536939621, -0.16160263121128082, 0.2230919450521469, 0.1124546229839325, -0.2800663113594055, -0.03480092063546181, 0.12237478047609329], [-0.3634951710700989, -0.4373401701450348, 0.4101124703884125, 0.15348273515701294, 0.4809761047363281, -0.042495232075452805, 0.29203730821609497, -0.006667699199169874, 0.3590724468231201, -0.2893316149711609, 0.33959251642227173, -0.27476024627685547, -0.22913505136966705, 0.2551709711551666, 0.14491255581378937, -0.26246142387390137], [0.1317022740840912, -0.2687910497188568, -0.29978132247924805, 0.314568430185318, 0.044672541320323944, 0.03085280768573284, 0.17674586176872253, -0.022913295775651932, 0.12273498624563217, 0.33946576714515686, -0.0843745693564415, -0.1125166118144989, 0.02028467319905758, -0.14804135262966156, -0.02397097460925579, 0.26345929503440857], [-0.06666117906570435, -0.32014790177345276, 0.024187184870243073, -0.33918243646621704, 0.062334463000297546, 0.09296467900276184, 0.00912410020828247, 0.13286180794239044, -0.012678132392466068, -0.14288997650146484, 0.010714042000472546, -0.1503657102584839, -0.17078562080860138, 0.04209042713046074, 0.22435222566127777, 0.2227136343717575], [-0.06985201686620712, 0.09687923640012741, -0.004642110783606768, -0.37610185146331787, 0.1475856453180313, -0.1388246715068817, -0.04090674966573715, 0.07206136733293533, 0.3865414261817932, 0.27911657094955444, -0.25153353810310364, -0.452518105506897, -0.2790975272655487, 0.30015698075294495, 0.12178585678339005, -0.30546724796295166], [-0.25860509276390076, -0.2049979418516159, 0.032363321632146835, 0.3343700170516968, -0.26010948419570923, 0.1363983303308487, -0.08165266364812851, 0.25684458017349243, 0.09773073345422745, -0.04632958024740219, 0.04207725450396538, 0.331022709608078, 0.2280305027961731, -0.34714674949645996, -0.03295683115720749, 0.04535960406064987], [0.4547639489173889, -0.035774439573287964, -0.11755158007144928, -0.1204124465584755, -0.03797708451747894, 0.10687433928251266, 0.1839503049850464, -0.25854435563087463, 0.15669719874858856, -0.14129087328910828, -0.023851051926612854, 0.2277252972126007, -0.023381950333714485, -0.1894509643316269, 0.23418453335762024, 0.30779188871383667], [-0.06182614341378212, 0.22644053399562836, 0.0749397948384285, -0.08768156915903091, 0.2432437688112259, 0.35947930812835693, -0.16309842467308044, -0.1592133790254593, -0.19135750830173492, -0.22332483530044556, 0.046057526022195816, 0.3905244469642639, 0.43282392621040344, -0.18389800190925598, -0.2268470823764801, 0.2809528112411499], [-0.11535651981830597, 0.10221470147371292, 0.0042006452567875385, -0.006421613972634077, -0.4114135801792145, 0.32562729716300964, 0.05134100839495659, -0.4625183045864105, 0.18881970643997192, 0.24760670959949493, 0.03364932909607887, 0.33049681782722473, -0.00010405993816675618, 0.03449882194399834, -0.37982675433158875, -0.17496919631958008], [0.2195458710193634, -0.004794300068169832, 0.3800024688243866, -0.047212760895490646, -0.04792129248380661, -0.25909140706062317, 0.4834970235824585, 0.2416619211435318, -0.22284729778766632, 0.06915663927793503, 0.03900103643536568, -0.2354688197374344, -0.05681835860013962, 0.28819072246551514, 0.11101912707090378, -0.09178333729505539], [0.09041720628738403, 0.08491542935371399, 0.2400766909122467, -0.24628081917762756, 0.5509189963340759, -0.10268112272024155, 0.19893953204154968, 0.42613115906715393, 0.32656189799308777, 0.0797392800450325, -0.3237161636352539, -0.4786709249019623, -0.23039355874061584, 0.1474599540233612, 0.2273663580417633, -0.13921108841896057], [0.2815532386302948, 0.08109451085329056, 0.11724013090133667, 0.0571061447262764, -0.14242926239967346, 0.015530352480709553, 0.2737875282764435, 0.27843886613845825, 0.3557618260383606, 0.08149618655443192, 0.0605500191450119, 0.22832834720611572, 0.08587449043989182, 0.33386653661727905, 0.05472419410943985, -0.059977609664201736], [0.057166341692209244, 0.08243336528539658, 0.10310564935207367, -0.3109542727470398, 0.4711669981479645, -0.46186748147010803, 0.3516605496406555, 0.45879337191581726, 0.17474016547203064, 0.293155699968338, -0.2726116478443146, -0.2866668999195099, -0.5304263234138489, 0.3296593725681305, 0.3199949264526367, -0.30712297558784485], [0.1729910969734192, -0.046888317912817, 0.10161110758781433, 0.08362605422735214, -0.034867752343416214, 0.027790579944849014, 0.023159323260188103, 0.2183527648448944, 0.2824505567550659, -0.3023870587348938, -0.12388119101524353, -0.1010742112994194, 0.19803351163864136, 0.1384861171245575, -0.26917487382888794, 0.1294461339712143]], "layer_1_biases": [-0.0024230200797319412, 0.044421397149562836, 0.13594941794872284, 0.12807373702526093, 0.18101470172405243, 0.16362720727920532, 0.10137870162725449, 0.12011642009019852, 0.09294020384550095, -0.04531098157167435, -0.032399218529462814, 0.08497434109449387, 0.1386822611093521, 0.08929987996816635, 0.08800582587718964, 0.0771646499633789], "layer_2_weights": [[-0.088764488697052], [-0.28654277324676514], [0.3170230984687805], [-0.5998418927192688], [0.43724745512008667], [-0.3440423607826233], [0.24727913737297058], [0.48855718970298767], [0.5087345242500305], [-0.5104156136512756], [0.342495858669281], [-0.7260754108428955], [-0.5186405777931213], [0.7444049715995789], [0.47949567437171936], [-0.44103094935417175]], "layer_2_biases": [0.03765183687210083]}